\data\
ngram 1=6
ngram 2=14

\1-grams:
-99 <s> -99
-0.8016323462331665 hello -99
-0.6766936096248666 world -99
-0.5797835966168101 </s> 
-0.6766936096248666 foo -99
-0.8016323462331665 bar -99

\2-grams:
-0.6989700043360187 <s> hello
-0.22184874961635637 <s> foo
-0.6989700043360187 <s> world
-0.17609125905568127 hello world
-0.4771212547196625 hello </s>
-0.3010299956639812 world </s>
-0.3010299956639812 world bar
-0.6020599913279624 foo bar
-0.6020599913279624 foo </s>
-0.6020599913279624 foo hello
-0.6020599913279624 foo world
-0.4771212547196625 bar hello
-0.4771212547196625 bar foo
-0.4771212547196625 bar </s>

\end\
